digraph Tree {
node [shape=box, style="filled", color="black"] ;
0 [label="mean concave points <= 0.051\ngini = 0.467\nsamples = 455\nvalue = [169, 286]\nclass = benign", fillcolor="#aed7f4"] ;
1 [label="worst radius <= 16.83\ngini = 0.107\nsamples = 282\nvalue = [16, 266]\nclass = benign", fillcolor="#45a3e7"] ;
0 -> 1 [labeldistance=2.5, labelangle=45, headlabel="True"] ;
2 [label="radius error <= 0.626\ngini = 0.037\nsamples = 263\nvalue = [5, 258]\nclass = benign", fillcolor="#3d9fe6"] ;
1 -> 2 ;
3 [label="worst smoothness <= 0.178\ngini = 0.023\nsamples = 260\nvalue = [3, 257]\nclass = benign", fillcolor="#3b9ee5"] ;
2 -> 3 ;
4 [label="smoothness error <= 0.003\ngini = 0.015\nsamples = 259\nvalue = [2, 257]\nclass = benign", fillcolor="#3b9ee5"] ;
3 -> 4 ;
5 [label="gini = 0.245\nsamples = 7\nvalue = [1, 6]\nclass = benign", fillcolor="#5aade9"] ;
4 -> 5 ;
6 [label="gini = 0.008\nsamples = 252\nvalue = [1, 251]\nclass = benign", fillcolor="#3a9de5"] ;
4 -> 6 ;
7 [label="gini = 0.0\nsamples = 1\nvalue = [1, 0]\nclass = malignant", fillcolor="#e58139"] ;
3 -> 7 ;
8 [label="concavity error <= 0.02\ngini = 0.444\nsamples = 3\nvalue = [2, 1]\nclass = malignant", fillcolor="#f2c09c"] ;
2 -> 8 ;
9 [label="gini = 0.0\nsamples = 2\nvalue = [2, 0]\nclass = malignant", fillcolor="#e58139"] ;
8 -> 9 ;
10 [label="gini = 0.0\nsamples = 1\nvalue = [0, 1]\nclass = benign", fillcolor="#399de5"] ;
8 -> 10 ;
11 [label="worst texture <= 19.91\ngini = 0.488\nsamples = 19\nvalue = [11, 8]\nclass = malignant", fillcolor="#f8ddc9"] ;
1 -> 11 ;
12 [label="gini = 0.0\nsamples = 6\nvalue = [0, 6]\nclass = benign", fillcolor="#399de5"] ;
11 -> 12 ;
13 [label="concave points error <= 0.01\ngini = 0.26\nsamples = 13\nvalue = [11, 2]\nclass = malignant", fillcolor="#ea985d"] ;
11 -> 13 ;
14 [label="gini = 0.0\nsamples = 11\nvalue = [11, 0]\nclass = malignant", fillcolor="#e58139"] ;
13 -> 14 ;
15 [label="gini = 0.0\nsamples = 2\nvalue = [0, 2]\nclass = benign", fillcolor="#399de5"] ;
13 -> 15 ;
16 [label="worst concave points <= 0.147\ngini = 0.204\nsamples = 173\nvalue = [153, 20]\nclass = malignant", fillcolor="#e89153"] ;
0 -> 16 [labeldistance=2.5, labelangle=-45, headlabel="False"] ;
17 [label="worst perimeter <= 115.25\ngini = 0.5\nsamples = 35\nvalue = [17, 18]\nclass = benign", fillcolor="#f4fafe"] ;
16 -> 17 ;
18 [label="mean texture <= 21.055\ngini = 0.298\nsamples = 22\nvalue = [4, 18]\nclass = benign", fillcolor="#65b3eb"] ;
17 -> 18 ;
19 [label="gini = 0.0\nsamples = 18\nvalue = [0, 18]\nclass = benign", fillcolor="#399de5"] ;
18 -> 19 ;
20 [label="gini = 0.0\nsamples = 4\nvalue = [4, 0]\nclass = malignant", fillcolor="#e58139"] ;
18 -> 20 ;
21 [label="gini = 0.0\nsamples = 13\nvalue = [13, 0]\nclass = malignant", fillcolor="#e58139"] ;
17 -> 21 ;
22 [label="concavity error <= 0.136\ngini = 0.029\nsamples = 138\nvalue = [136, 2]\nclass = malignant", fillcolor="#e5833c"] ;
16 -> 22 ;
23 [label="gini = 0.0\nsamples = 136\nvalue = [136, 0]\nclass = malignant", fillcolor="#e58139"] ;
22 -> 23 ;
24 [label="gini = 0.0\nsamples = 2\nvalue = [0, 2]\nclass = benign", fillcolor="#399de5"] ;
22 -> 24 ;
}